0.48647808309008006
0.28682591812133829
-0.19634836546666096
-0.063466547748507934
0.39315353355479532
0.12846720641887516
-0.45921990105859833
0.30753793387719031
0.40470689381109332
-0.12160643382567833
0.069019853328927294
0.72651128910408491
0.11948724207069952
-0.60093265288148701
0.20370236944047715
-0.050839690090921499
-0.074542084504954045
0.7012362643281731
0.31051525938171209
0.72995334506874288
-0.61574128549669149
-0.164192478059834
0.56434548000860174
0.071154621556958161
0.19680801090985234
0.39895426688019492
0.94679824632733278
-0.57033241264558066
0.47341512004178138
0.10215030694928712
0.099862790795423359
0.0008384371611080847
0.11255404890237436
0.54093630221990896
-0.55912818340425741
0.042644990866561781
0.52926002175462605
0.25981468019221399
0.17387347864328745
0.27831511595253688
0.2493696308187742
-0.82935727719763686
-0.27081054009975264
0.48459902448535092
0.41595787037333232
0.57763517845838674
-0.050522143578330146
0.90480939932013382
-0.9358240146324045
-0.059740184496245421
0.25081950355016613
0.013388991107621965
0.1917183187978673
0.12766807415040538
-0.17233351531076491
-0.13404535113671337
0.049672277932921061
-0.12983350966563145
-0.24692819154368897
0.45043733979886103
-0.089573932533424425
-0.25387909315490886
0.31986822870303971
0.4067890798767983
-0.4189525160702357
0.05014717805499648
0.1812020058932019
-0.52321859857589859
-0.024848589472372545
0.41514790173470534
0.18315032116953883
0.38870383815169418
0.19597004478005361
-0.24929084407222291
-0.05005714666107728
-0.34481875195300515
0.1527747821928537
0.50076420700716895
-0.2136304413452062
0.058623566071126197
0.12685140723458785
0.37131498541437674
-0.33733290088230089
-0.025654744080750295
0.66356521484146314
0.30809079391921212
-0.081374530463497879
-0.21794224016922067
0.27555574737689065
-0.45968859144649599
-0.033491824789194838
0.13863017796883434
0.35626133213809347
-0.31689940196676486
0.13537726794487789
0.14810177070928526
-0.60824384124417796
0.44608604718302786
-0.075544466330949009
0.040607498839690108
-0.067675399150519788
-0.43480294495909055
0.11110365617162328
-0.015646358588093816
0.35605203044336858
