763.04003219802814
762.763385310849
762.98233553966099
763.01292538304585
762.94395330063696
762.28046026439722
762.50762316517773
668.75583291601151
668.46883157419461
668.40610595573344
668.63664155331571
668.58592210095821
668.81014655014724
668.43332489295835
-403.89969962118352
-404.50429652811437
-404.51738605440477
-404.15406725330735
-403.92526130855748
-403.81490352699319
-404.2082247511259
-412.37345503789982
-412.65221837071488
-412.81461378467475
-412.57083265578865
-412.21860115480956
-412.36305174593758
-412.62213294827188
1054.5293695917208
1054.4962297499569
1054.0450915003798
1053.9870544249184
1053.8737678196067
1054.3912729223671
1054.5582122141582
-632.13688934272045
-631.74492431251088
-631.84069132863578
-632.37702479324548
-632.31789082607793
-631.90036251921902
-632.33709640614597
-669.93578165715473
-669.84835310887195
-669.29019369346781
-669.30511226720284
-670.03108449684453
-669.22368572863115
-669.19408423004734
-3.2136592284281389
-3.5112245020334805
-3.5303210484752454
-3.100555870913118
-3.426167017315628
-2.9891752052399121
-3.2432353649713188
-3.117459470668638
-3.3069822532463022
-3.0204278449122159
-2.73531559378663
-2.956183450945399
-2.9730864662815697
-3.4223168742799843
-3.3457741647297321
-3.1620841847249044
-2.9637866476067649
-3.0110671403308933
-3.5908150325706498
-3.286903476478837
-3.023189114644488
-3.3934561265651606
-3.8257973009307031
-3.2165374349543039
-3.4644355313166031
-3.9756410000362203
-4.0204975199508359
-3.3056107251529516
-3.228897391092671
-2.9095225643198721
-2.8855612670787556
-2.8167559863986931
-3.2097550351123023
-2.5420961729376139
-2.3239269189779637
-3.3438179211049412
-3.67259146582348
-3.3396234736418471
-3.7165738142195406
-3.9277601904651402
-3.1644736996845086
-3.4227999781246621
-3.4436670241256206
-3.1951572620250315
-3.9554609693604927
-3.3877036637929674
-3.6148072153440629
-3.7739078976917448
-3.8697531739189297
-6198.6331292856075
-6197.9998953299673
-6198.0511202206199
-6198.2163765320538
-6198.7400031869038
-6198.9074317149752
-6198.7914540847942
