0.13909821335299916
0.01937968883365979
-0.64615792127030569
-0.35348235350419727
-0.48186555497307759
0.12619737581350915
-5.2860828013842323
0.080011455510067664
0.081805503147244635
-0.48833800844801967
-0.4693088022359494
-0.051998005430239753
0.68169026350682937
-5.471964948450867
-0.24753984078316096
-0.029648310201315232
0.12717365320290455
0.19107875820464773
0.053230112604199013
0.76022715913780514
-5.6217875527595362
-0.10416844488891636
0.050497486953980458
-0.60831073329419161
0.2168104605237281
-0.64176624195493759
0.36013590652693622
-5.3526062088505526
0.11142834710742147
0.11249343368822405
0.14953264992483614
-0.34862634704942358
-0.21992459514910476
0.77248683195912338
-5.5962868894228865
-0.11792763689461538
0.18963594014737301
-0.11179299868847159
-0.24629100259688766
-0.56505767318887667
0.56223719203879963
-5.3176061219592725
-0.48442505157032634
0.31097608868641002
-0.59062150224736165
0.11290227604050924
-0.64807762600306462
0.10480219628587185
-5.4827647384460887
-1.0804421004054157
-1.4880680769861643
-1.7397998017402689
-1.0771244607357615
-1.1824209984430858
-1.58141052275053
-1.8473100461496967
-1.749393028627273
-1.889378845670888
-1.3656295252079655
-1.9578458873507154
-1.3433177511935188
-1.3443926314950365
-1.4993655999514095
-1.6268833172148973
-1.43004049292515
-1.2833786490250025
-1.6913821380284402
-1.890598731936098
-1.4634190617219773
-1.350484026187817
-1.3961583038574132
-1.9236187415021717
-1.1146694530505348
-1.8182728648607214
-1.6058202046295795
-1.1837647036646002
-1.6902705871835999
-1.6607711797578393
-1.5570725800493626
-1.6253476447759887
-1.577495950027376
-1.2301333671582531
-1.9128085609666492
-1.6175884848098274
-1.6313956962861329
-1.0273675353234808
-1.6687817690748812
-1.4057757326638527
-1.5026866329949102
-1.6381133636281739
-1.8129843461926403
-1.9037631839631981
-1.4842791275919685
-1.7164218263630278
-1.6704954620488153
-1.6965342020077829
-1.1939509204694381
-0.96966911640193476
-2.4426083884265548
-1.0347911118542985
-1.5852310474234093
-1.63583310419649
-0.97103068551977678
-1.6423352897671153
-1.6923374110334377
